digraph Tree {
node [shape=box, style="rounded", color="black", fontname=helvetica] ;
edge [fontname=helvetica] ;
0 [label="P <= 14.0\nentropy = 1.5\nsamples = 98\nvalue = [46, 42, 69]"] ;
1 [label="A <= 13.1\nentropy = 0.4\nsamples = 42\nvalue = [7, 0, 69]"] ;
0 -> 1 [labeldistance=2.5, labelangle=45, headlabel="True"] ;
2 [label="lkern <= 5.1\nentropy = 0.3\nsamples = 39\nvalue = [4, 0, 68]"] ;
1 -> 2 ;
3 [label="lgro <= 4.7\nentropy = 0.9\nsamples = 6\nvalue = [4, 0, 7]"] ;
2 -> 3 ;
4 [label="entropy = 0.0\nsamples = 2\nvalue = [4, 0, 0]"] ;
3 -> 4 ;
5 [label="entropy = 0.0\nsamples = 4\nvalue = [0, 0, 7]"] ;
3 -> 5 ;
6 [label="entropy = 0.0\nsamples = 33\nvalue = [0, 0, 61]"] ;
2 -> 6 ;
7 [label="lkern <= 5.2\nentropy = 0.8\nsamples = 3\nvalue = [3, 0, 1]"] ;
1 -> 7 ;
8 [label="entropy = 0.0\nsamples = 2\nvalue = [3, 0, 0]"] ;
7 -> 8 ;
9 [label="entropy = 0.0\nsamples = 1\nvalue = [0, 0, 1]"] ;
7 -> 9 ;
10 [label="A <= 16.5\nentropy = 1.0\nsamples = 56\nvalue = [39, 42, 0]"] ;
0 -> 10 [labeldistance=2.5, labelangle=-45, headlabel="False"] ;
11 [label="P <= 15.1\nentropy = 0.7\nsamples = 29\nvalue = [39, 9, 0]"] ;
10 -> 11 ;
12 [label="lkern <= 5.9\nentropy = 0.3\nsamples = 23\nvalue = [36, 2, 0]"] ;
11 -> 12 ;
13 [label="asym <= 3.6\nentropy = 0.2\nsamples = 22\nvalue = [36, 1, 0]"] ;
12 -> 13 ;
14 [label="entropy = 0.0\nsamples = 19\nvalue = [32, 0, 0]"] ;
13 -> 14 ;
15 [label="lkern <= 5.6\nentropy = 0.7\nsamples = 3\nvalue = [4, 1, 0]"] ;
13 -> 15 ;
16 [label="entropy = 0.0\nsamples = 1\nvalue = [0, 1, 0]"] ;
15 -> 16 ;
17 [label="entropy = 0.0\nsamples = 2\nvalue = [4, 0, 0]"] ;
15 -> 17 ;
18 [label="entropy = 0.0\nsamples = 1\nvalue = [0, 1, 0]"] ;
12 -> 18 ;
19 [label="asym <= 2.3\nentropy = 0.9\nsamples = 6\nvalue = [3, 7, 0]"] ;
11 -> 19 ;
20 [label="entropy = 0.0\nsamples = 2\nvalue = [3, 0, 0]"] ;
19 -> 20 ;
21 [label="entropy = 0.0\nsamples = 4\nvalue = [0, 7, 0]"] ;
19 -> 21 ;
22 [label="entropy = 0.0\nsamples = 27\nvalue = [0, 33, 0]"] ;
10 -> 22 ;
}